digraph Tree {
node [shape=box] ;
0 [label="X[5] <= 6.825\nmse = 89.557\nsamples = 339\nvalue = 22.656"] ;
1 [label="X[12] <= 14.4\nmse = 36.6\nsamples = 276\nvalue = 19.404"] ;
0 -> 1 [labeldistance=2.5, labelangle=45, headlabel="True"] ;
2 [label="X[7] <= 1.474\nmse = 23.346\nsamples = 154\nvalue = 22.881"] ;
1 -> 2 ;
3 [label="X[7] <= 1.309\nmse = 108.536\nsamples = 3\nvalue = 42.633"] ;
2 -> 3 ;
4 [label="mse = 0.0\nsamples = 1\nvalue = 27.9"] ;
3 -> 4 ;
5 [label="mse = 0.0\nsamples = 2\nvalue = 50.0"] ;
3 -> 5 ;
6 [label="X[12] <= 7.685\nmse = 13.748\nsamples = 151\nvalue = 22.489"] ;
2 -> 6 ;
7 [label="X[5] <= 6.687\nmse = 10.01\nsamples = 42\nvalue = 25.626"] ;
6 -> 7 ;
8 [label="X[7] <= 4.644\nmse = 5.831\nsamples = 37\nvalue = 24.895"] ;
7 -> 8 ;
9 [label="X[2] <= 6.685\nmse = 7.881\nsamples = 12\nvalue = 26.567"] ;
8 -> 9 ;
10 [label="X[9] <= 286.0\nmse = 0.346\nsamples = 5\nvalue = 29.36"] ;
9 -> 10 ;
11 [label="X[6] <= 44.95\nmse = 0.122\nsamples = 2\nvalue = 28.75"] ;
10 -> 11 ;
12 [label="mse = 0.0\nsamples = 1\nvalue = 29.1"] ;
11 -> 12 ;
13 [label="mse = -0.0\nsamples = 1\nvalue = 28.4"] ;
11 -> 13 ;
14 [label="X[9] <= 301.5\nmse = 0.082\nsamples = 3\nvalue = 29.767"] ;
10 -> 14 ;
15 [label="mse = 0.0\nsamples = 1\nvalue = 29.4"] ;
14 -> 15 ;
16 [label="X[11] <= 389.87\nmse = 0.023\nsamples = 2\nvalue = 29.95"] ;
14 -> 16 ;
17 [label="mse = 0.0\nsamples = 1\nvalue = 29.8"] ;
16 -> 17 ;
18 [label="mse = -0.0\nsamples = 1\nvalue = 30.1"] ;
16 -> 18 ;
19 [label="X[11] <= 359.505\nmse = 3.708\nsamples = 7\nvalue = 24.571"] ;
9 -> 19 ;
20 [label="X[2] <= 18.84\nmse = 0.062\nsamples = 2\nvalue = 27.25"] ;
19 -> 20 ;
21 [label="mse = 0.0\nsamples = 1\nvalue = 27.5"] ;
20 -> 21 ;
22 [label="mse = 0.0\nsamples = 1\nvalue = 27.0"] ;
20 -> 22 ;
23 [label="X[10] <= 18.5\nmse = 1.148\nsamples = 5\nvalue = 23.5"] ;
19 -> 23 ;
24 [label="X[5] <= 6.316\nmse = 0.242\nsamples = 3\nvalue = 22.733"] ;
23 -> 24 ;
25 [label="mse = 0.0\nsamples = 1\nvalue = 22.1"] ;
24 -> 25 ;
26 [label="X[7] <= 2.542\nmse = 0.063\nsamples = 2\nvalue = 23.05"] ;
24 -> 26 ;
27 [label="mse = 0.0\nsamples = 1\nvalue = 23.3"] ;
26 -> 27 ;
28 [label="mse = 0.0\nsamples = 1\nvalue = 22.8"] ;
26 -> 28 ;
29 [label="X[0] <= 0.121\nmse = 0.303\nsamples = 2\nvalue = 24.65"] ;
23 -> 29 ;
30 [label="mse = 0.0\nsamples = 1\nvalue = 24.1"] ;
29 -> 30 ;
31 [label="mse = 0.0\nsamples = 1\nvalue = 25.2"] ;
29 -> 31 ;
32 [label="X[9] <= 272.5\nmse = 2.862\nsamples = 25\nvalue = 24.092"] ;
8 -> 32 ;
33 [label="X[12] <= 5.51\nmse = 3.868\nsamples = 4\nvalue = 26.95"] ;
32 -> 33 ;
34 [label="X[2] <= 2.555\nmse = 0.04\nsamples = 2\nvalue = 28.9"] ;
33 -> 34 ;
35 [label="mse = 0.0\nsamples = 1\nvalue = 28.7"] ;
34 -> 35 ;
36 [label="mse = 0.0\nsamples = 1\nvalue = 29.1"] ;
34 -> 36 ;
37 [label="X[5] <= 6.19\nmse = 0.09\nsamples = 2\nvalue = 25.0"] ;
33 -> 37 ;
38 [label="mse = 0.0\nsamples = 1\nvalue = 25.3"] ;
37 -> 38 ;
39 [label="mse = -0.0\nsamples = 1\nvalue = 24.7"] ;
37 -> 39 ;
40 [label="X[5] <= 6.364\nmse = 0.818\nsamples = 21\nvalue = 23.548"] ;
32 -> 40 ;
41 [label="X[0] <= 0.038\nmse = 0.568\nsamples = 10\nvalue = 22.98"] ;
40 -> 41 ;
42 [label="mse = 0.0\nsamples = 1\nvalue = 24.8"] ;
41 -> 42 ;
43 [label="X[6] <= 31.65\nmse = 0.222\nsamples = 9\nvalue = 22.778"] ;
41 -> 43 ;
44 [label="X[11] <= 376.19\nmse = 0.105\nsamples = 7\nvalue = 22.971"] ;
43 -> 44 ;
45 [label="X[7] <= 6.521\nmse = 0.002\nsamples = 2\nvalue = 22.55"] ;
44 -> 45 ;
46 [label="mse = 0.0\nsamples = 1\nvalue = 22.6"] ;
45 -> 46 ;
47 [label="mse = -0.0\nsamples = 1\nvalue = 22.5"] ;
45 -> 47 ;
48 [label="X[12] <= 6.505\nmse = 0.046\nsamples = 5\nvalue = 23.14"] ;
44 -> 48 ;
49 [label="X[7] <= 5.352\nmse = 0.01\nsamples = 2\nvalue = 22.9"] ;
48 -> 49 ;
50 [label="mse = 0.0\nsamples = 1\nvalue = 22.8"] ;
49 -> 50 ;
51 [label="mse = 0.0\nsamples = 1\nvalue = 23.0"] ;
49 -> 51 ;
52 [label="X[7] <= 6.302\nmse = 0.007\nsamples = 3\nvalue = 23.3"] ;
48 -> 52 ;
53 [label="mse = 0.0\nsamples = 1\nvalue = 23.4"] ;
52 -> 53 ;
54 [label="X[11] <= 393.79\nmse = 0.003\nsamples = 2\nvalue = 23.25"] ;
52 -> 54 ;
55 [label="mse = 0.0\nsamples = 1\nvalue = 23.3"] ;
54 -> 55 ;
56 [label="mse = 0.0\nsamples = 1\nvalue = 23.2"] ;
54 -> 56 ;
57 [label="X[9] <= 304.0\nmse = 0.04\nsamples = 2\nvalue = 22.1"] ;
43 -> 57 ;
58 [label="mse = 0.0\nsamples = 1\nvalue = 22.3"] ;
57 -> 58 ;
59 [label="mse = -0.0\nsamples = 1\nvalue = 21.9"] ;
57 -> 59 ;
60 [label="X[9] <= 332.5\nmse = 0.486\nsamples = 11\nvalue = 24.064"] ;
40 -> 60 ;
61 [label="X[10] <= 16.8\nmse = 0.284\nsamples = 9\nvalue = 24.3"] ;
60 -> 61 ;
62 [label="X[6] <= 25.0\nmse = 0.04\nsamples = 2\nvalue = 23.5"] ;
61 -> 62 ;
63 [label="mse = 0.0\nsamples = 1\nvalue = 23.7"] ;
62 -> 63 ;
64 [label="mse = 0.0\nsamples = 1\nvalue = 23.3"] ;
62 -> 64 ;
65 [label="X[12] <= 6.42\nmse = 0.119\nsamples = 7\nvalue = 24.529"] ;
61 -> 65 ;
66 [label="X[0] <= 0.203\nmse = 0.03\nsamples = 5\nvalue = 24.72"] ;
65 -> 66 ;
67 [label="X[10] <= 17.15\nmse = 0.007\nsamples = 3\nvalue = 24.6"] ;
66 -> 67 ;
68 [label="mse = 0.0\nsamples = 1\nvalue = 24.5"] ;
67 -> 68 ;
69 [label="X[1] <= 42.5\nmse = 0.002\nsamples = 2\nvalue = 24.65"] ;
67 -> 69 ;
70 [label="mse = 0.0\nsamples = 1\nvalue = 24.6"] ;
69 -> 70 ;
71 [label="mse = 0.0\nsamples = 1\nvalue = 24.7"] ;
69 -> 71 ;
72 [label="X[12] <= 4.855\nmse = 0.01\nsamples = 2\nvalue = 24.9"] ;
66 -> 72 ;
73 [label="mse = 0.0\nsamples = 1\nvalue = 24.8"] ;
72 -> 73 ;
74 [label="mse = 0.0\nsamples = 1\nvalue = 25.0"] ;
72 -> 74 ;
75 [label="X[1] <= 12.5\nmse = 0.022\nsamples = 2\nvalue = 24.05"] ;
65 -> 75 ;
76 [label="mse = 0.0\nsamples = 1\nvalue = 24.2"] ;
75 -> 76 ;
77 [label="mse = 0.0\nsamples = 1\nvalue = 23.9"] ;
75 -> 77 ;
78 [label="X[2] <= 2.7\nmse = 0.01\nsamples = 2\nvalue = 23.0"] ;
60 -> 78 ;
79 [label="mse = 0.0\nsamples = 1\nvalue = 22.9"] ;
78 -> 79 ;
80 [label="mse = 0.0\nsamples = 1\nvalue = 23.1"] ;
78 -> 80 ;
81 [label="X[7] <= 3.322\nmse = 7.662\nsamples = 5\nvalue = 31.04"] ;
7 -> 81 ;
82 [label="mse = 0.0\nsamples = 1\nvalue = 26.5"] ;
81 -> 82 ;
83 [label="X[9] <= 240.5\nmse = 3.137\nsamples = 4\nvalue = 32.175"] ;
81 -> 83 ;
84 [label="mse = 0.0\nsamples = 1\nvalue = 35.1"] ;
83 -> 84 ;
85 [label="X[12] <= 5.855\nmse = 0.38\nsamples = 3\nvalue = 31.2"] ;
83 -> 85 ;
86 [label="X[0] <= 0.045\nmse = 0.09\nsamples = 2\nvalue = 30.8"] ;
85 -> 86 ;
87 [label="mse = 0.0\nsamples = 1\nvalue = 31.1"] ;
86 -> 87 ;
88 [label="mse = 0.0\nsamples = 1\nvalue = 30.5"] ;
86 -> 88 ;
89 [label="mse = 0.0\nsamples = 1\nvalue = 32.0"] ;
85 -> 89 ;
90 [label="X[5] <= 6.098\nmse = 9.934\nsamples = 109\nvalue = 21.28"] ;
6 -> 90 ;
91 [label="X[6] <= 79.45\nmse = 6.183\nsamples = 50\nvalue = 19.948"] ;
90 -> 91 ;
92 [label="X[5] <= 5.87\nmse = 4.237\nsamples = 39\nvalue = 20.5"] ;
91 -> 92 ;
93 [label="X[7] <= 2.451\nmse = 3.014\nsamples = 17\nvalue = 19.412"] ;
92 -> 93 ;
94 [label="X[0] <= 0.467\nmse = 0.25\nsamples = 2\nvalue = 22.3"] ;
93 -> 94 ;
95 [label="mse = 0.0\nsamples = 1\nvalue = 21.8"] ;
94 -> 95 ;
96 [label="mse = 0.0\nsamples = 1\nvalue = 22.8"] ;
94 -> 96 ;
97 [label="X[5] <= 5.75\nmse = 2.122\nsamples = 15\nvalue = 19.027"] ;
93 -> 97 ;
98 [label="X[10] <= 19.4\nmse = 1.427\nsamples = 7\nvalue = 18.014"] ;
97 -> 98 ;
99 [label="X[2] <= 7.98\nmse = 0.389\nsamples = 3\nvalue = 16.933"] ;
98 -> 99 ;
100 [label="X[8] <= 4.0\nmse = 0.062\nsamples = 2\nvalue = 17.35"] ;
99 -> 100 ;
101 [label="mse = 0.0\nsamples = 1\nvalue = 17.1"] ;
100 -> 101 ;
102 [label="mse = 0.0\nsamples = 1\nvalue = 17.6"] ;
100 -> 102 ;
103 [label="mse = 0.0\nsamples = 1\nvalue = 16.1"] ;
99 -> 103 ;
104 [label="X[0] <= 0.764\nmse = 0.672\nsamples = 4\nvalue = 18.825"] ;
98 -> 104 ;
105 [label="X[8] <= 6.0\nmse = 0.056\nsamples = 3\nvalue = 18.367"] ;
104 -> 105 ;
106 [label="mse = 0.0\nsamples = 2\nvalue = 18.2"] ;
105 -> 106 ;
107 [label="mse = -0.0\nsamples = 1\nvalue = 18.7"] ;
105 -> 107 ;
108 [label="mse = 0.0\nsamples = 1\nvalue = 20.2"] ;
104 -> 108 ;
109 [label="X[0] <= 0.284\nmse = 1.049\nsamples = 8\nvalue = 19.912"] ;
97 -> 109 ;
110 [label="X[2] <= 8.3\nmse = 0.308\nsamples = 5\nvalue = 19.3"] ;
109 -> 110 ;
111 [label="X[2] <= 6.05\nmse = 0.073\nsamples = 4\nvalue = 19.55"] ;
110 -> 111 ;
112 [label="X[0] <= 0.039\nmse = 0.007\nsamples = 3\nvalue = 19.4"] ;
111 -> 112 ;
113 [label="mse = 0.0\nsamples = 1\nvalue = 19.5"] ;
112 -> 113 ;
114 [label="X[10] <= 16.5\nmse = 0.002\nsamples = 2\nvalue = 19.35"] ;
112 -> 114 ;
115 [label="mse = 0.0\nsamples = 1\nvalue = 19.4"] ;
114 -> 115 ;
116 [label="mse = -0.0\nsamples = 1\nvalue = 19.3"] ;
114 -> 116 ;
117 [label="mse = 0.0\nsamples = 1\nvalue = 20.0"] ;
111 -> 117 ;
118 [label="mse = 0.0\nsamples = 1\nvalue = 18.3"] ;
110 -> 118 ;
119 [label="X[6] <= 45.15\nmse = 0.616\nsamples = 3\nvalue = 20.933"] ;
109 -> 119 ;
120 [label="X[11] <= 390.785\nmse = 0.123\nsamples = 2\nvalue = 21.45"] ;
119 -> 120 ;
121 [label="mse = 0.0\nsamples = 1\nvalue = 21.1"] ;
120 -> 121 ;
122 [label="mse = -0.0\nsamples = 1\nvalue = 21.8"] ;
120 -> 122 ;
123 [label="mse = 0.0\nsamples = 1\nvalue = 19.9"] ;
119 -> 123 ;
124 [label="X[2] <= 5.8\nmse = 3.561\nsamples = 22\nvalue = 21.341"] ;
92 -> 124 ;
125 [label="X[10] <= 17.55\nmse = 0.685\nsamples = 7\nvalue = 19.443"] ;
124 -> 125 ;
126 [label="X[9] <= 307.5\nmse = 0.249\nsamples = 3\nvalue = 20.233"] ;
125 -> 126 ;
127 [label="X[1] <= 25.5\nmse = 0.04\nsamples = 2\nvalue = 19.9"] ;
126 -> 127 ;
128 [label="mse = 0.0\nsamples = 1\nvalue = 19.7"] ;
127 -> 128 ;
129 [label="mse = 0.0\nsamples = 1\nvalue = 20.1"] ;
127 -> 129 ;
130 [label="mse = -0.0\nsamples = 1\nvalue = 20.9"] ;
126 -> 130 ;
131 [label="X[0] <= 0.088\nmse = 0.193\nsamples = 4\nvalue = 18.85"] ;
125 -> 131 ;
132 [label="X[11] <= 395.855\nmse = 0.007\nsamples = 3\nvalue = 18.6"] ;
131 -> 132 ;
133 [label="X[2] <= 3.44\nmse = 0.003\nsamples = 2\nvalue = 18.55"] ;
132 -> 133 ;
134 [label="mse = 0.0\nsamples = 1\nvalue = 18.6"] ;
133 -> 134 ;
135 [label="mse = 0.0\nsamples = 1\nvalue = 18.5"] ;
133 -> 135 ;
136 [label="mse = -0.0\nsamples = 1\nvalue = 18.7"] ;
132 -> 136 ;
137 [label="mse = 0.0\nsamples = 1\nvalue = 19.6"] ;
131 -> 137 ;
138 [label="X[12] <= 10.05\nmse = 2.437\nsamples = 15\nvalue = 22.227"] ;
124 -> 138 ;
139 [label="X[4] <= 0.47\nmse = 0.457\nsamples = 6\nvalue = 21.0"] ;
138 -> 139 ;
140 [label="X[6] <= 30.7\nmse = 0.109\nsamples = 3\nvalue = 21.633"] ;
139 -> 140 ;
141 [label="X[12] <= 8.99\nmse = 0.022\nsamples = 2\nvalue = 21.85"] ;
140 -> 141 ;
142 [label="mse = 0.0\nsamples = 1\nvalue = 22.0"] ;
141 -> 142 ;
143 [label="mse = -0.0\nsamples = 1\nvalue = 21.7"] ;
141 -> 143 ;
144 [label="mse = -0.0\nsamples = 1\nvalue = 21.2"] ;
140 -> 144 ;
145 [label="X[4] <= 0.541\nmse = 0.002\nsamples = 3\nvalue = 20.367"] ;
139 -> 145 ;
146 [label="mse = 0.0\nsamples = 2\nvalue = 20.4"] ;
145 -> 146 ;
147 [label="mse = 0.0\nsamples = 1\nvalue = 20.3"] ;
145 -> 147 ;
148 [label="X[5] <= 5.923\nmse = 2.085\nsamples = 9\nvalue = 23.044"] ;
138 -> 148 ;
149 [label="X[10] <= 17.5\nmse = 1.748\nsamples = 5\nvalue = 22.2"] ;
148 -> 149 ;
150 [label="X[2] <= 16.735\nmse = 0.062\nsamples = 2\nvalue = 23.55"] ;
149 -> 150 ;
151 [label="mse = 0.0\nsamples = 1\nvalue = 23.3"] ;
150 -> 151 ;
152 [label="mse = -0.0\nsamples = 1\nvalue = 23.8"] ;
150 -> 152 ;
153 [label="X[6] <= 32.1\nmse = 0.847\nsamples = 3\nvalue = 21.3"] ;
149 -> 153 ;
154 [label="mse = 0.0\nsamples = 1\nvalue = 22.6"] ;
153 -> 154 ;
155 [label="X[12] <= 13.495\nmse = 0.002\nsamples = 2\nvalue = 20.65"] ;
153 -> 155 ;
156 [label="mse = 0.0\nsamples = 1\nvalue = 20.6"] ;
155 -> 156 ;
157 [label="mse = 0.0\nsamples = 1\nvalue = 20.7"] ;
155 -> 157 ;
158 [label="X[5] <= 5.997\nmse = 0.5\nsamples = 4\nvalue = 24.1"] ;
148 -> 158 ;
159 [label="X[10] <= 18.3\nmse = 0.027\nsamples = 3\nvalue = 24.5"] ;
158 -> 159 ;
160 [label="mse = 0.0\nsamples = 1\nvalue = 24.3"] ;
159 -> 160 ;
161 [label="X[11] <= 395.165\nmse = 0.01\nsamples = 2\nvalue = 24.6"] ;
159 -> 161 ;
162 [label="mse = 0.0\nsamples = 1\nvalue = 24.7"] ;
161 -> 162 ;
163 [label="mse = -0.0\nsamples = 1\nvalue = 24.5"] ;
161 -> 163 ;
164 [label="mse = -0.0\nsamples = 1\nvalue = 22.9"] ;
158 -> 164 ;
165 [label="X[10] <= 20.6\nmse = 8.17\nsamples = 11\nvalue = 17.991"] ;
91 -> 165 ;
166 [label="X[3] <= 0.5\nmse = 3.376\nsamples = 9\nvalue = 19.056"] ;
165 -> 166 ;
167 [label="X[12] <= 14.3\nmse = 1.814\nsamples = 8\nvalue = 19.525"] ;
166 -> 167 ;
168 [label="X[8] <= 15.0\nmse = 0.861\nsamples = 7\nvalue = 19.914"] ;
167 -> 168 ;
169 [label="X[0] <= 0.114\nmse = 0.238\nsamples = 6\nvalue = 19.583"] ;
168 -> 169 ;
170 [label="X[11] <= 387.285\nmse = 0.01\nsamples = 2\nvalue = 20.2"] ;
169 -> 170 ;
171 [label="mse = 0.0\nsamples = 1\nvalue = 20.3"] ;
170 -> 171 ;
172 [label="mse = -0.0\nsamples = 1\nvalue = 20.1"] ;
170 -> 172 ;
173 [label="X[0] <= 0.206\nmse = 0.067\nsamples = 4\nvalue = 19.275"] ;
169 -> 173 ;
174 [label="X[11] <= 395.705\nmse = 0.023\nsamples = 2\nvalue = 19.05"] ;
173 -> 174 ;
175 [label="mse = 0.0\nsamples = 1\nvalue = 19.2"] ;
174 -> 175 ;
176 [label="mse = 0.0\nsamples = 1\nvalue = 18.9"] ;
174 -> 176 ;
177 [label="X[12] <= 12.5\nmse = 0.01\nsamples = 2\nvalue = 19.5"] ;
173 -> 177 ;
178 [label="mse = 0.0\nsamples = 1\nvalue = 19.4"] ;
177 -> 178 ;
179 [label="mse = -0.0\nsamples = 1\nvalue = 19.6"] ;
177 -> 179 ;
180 [label="mse = -0.0\nsamples = 1\nvalue = 21.9"] ;
168 -> 180 ;
181 [label="mse = -0.0\nsamples = 1\nvalue = 16.8"] ;
167 -> 181 ;
182 [label="mse = -0.0\nsamples = 1\nvalue = 15.3"] ;
166 -> 182 ;
183 [label="X[4] <= 0.556\nmse = 1.69\nsamples = 2\nvalue = 13.2"] ;
165 -> 183 ;
184 [label="mse = 0.0\nsamples = 1\nvalue = 14.5"] ;
183 -> 184 ;
185 [label="mse = 0.0\nsamples = 1\nvalue = 11.9"] ;
183 -> 185 ;
186 [label="X[9] <= 208.0\nmse = 10.336\nsamples = 59\nvalue = 22.408"] ;
90 -> 186 ;
187 [label="mse = 0.0\nsamples = 1\nvalue = 36.2"] ;
186 -> 187 ;
188 [label="X[12] <= 9.98\nmse = 7.178\nsamples = 58\nvalue = 22.171"] ;
186 -> 188 ;
189 [label="X[0] <= 0.066\nmse = 7.682\nsamples = 26\nvalue = 23.796"] ;
188 -> 189 ;
190 [label="X[9] <= 375.5\nmse = 4.786\nsamples = 10\nvalue = 21.66"] ;
189 -> 190 ;
191 [label="X[12] <= 9.505\nmse = 1.452\nsamples = 8\nvalue = 22.537"] ;
190 -> 191 ;
192 [label="X[5] <= 6.262\nmse = 0.438\nsamples = 5\nvalue = 21.84"] ;
191 -> 192 ;
193 [label="mse = 0.0\nsamples = 1\nvalue = 20.6"] ;
192 -> 193 ;
194 [label="X[11] <= 392.865\nmse = 0.067\nsamples = 4\nvalue = 22.15"] ;
192 -> 194 ;
195 [label="mse = 0.0\nsamples = 1\nvalue = 22.6"] ;
194 -> 195 ;
196 [label="mse = 0.0\nsamples = 3\nvalue = 22.0"] ;
194 -> 196 ;
197 [label="X[8] <= 2.0\nmse = 0.98\nsamples = 3\nvalue = 23.7"] ;
191 -> 197 ;
198 [label="mse = 0.0\nsamples = 1\nvalue = 22.4"] ;
197 -> 198 ;
199 [label="X[4] <= 0.427\nmse = 0.202\nsamples = 2\nvalue = 24.35"] ;
197 -> 199 ;
200 [label="mse = 0.0\nsamples = 1\nvalue = 24.8"] ;
199 -> 200 ;
201 [label="mse = -0.0\nsamples = 1\nvalue = 23.9"] ;
199 -> 201 ;
202 [label="X[11] <= 379.265\nmse = 2.722\nsamples = 2\nvalue = 18.15"] ;
190 -> 202 ;
203 [label="mse = 0.0\nsamples = 1\nvalue = 19.8"] ;
202 -> 203 ;
204 [label="mse = 0.0\nsamples = 1\nvalue = 16.5"] ;
202 -> 204 ;
205 [label="X[5] <= 6.33\nmse = 4.857\nsamples = 16\nvalue = 25.131"] ;
189 -> 205 ;
206 [label="X[5] <= 6.224\nmse = 2.219\nsamples = 6\nvalue = 23.533"] ;
205 -> 206 ;
207 [label="X[12] <= 9.315\nmse = 0.223\nsamples = 4\nvalue = 24.55"] ;
206 -> 207 ;
208 [label="X[0] <= 0.211\nmse = 0.04\nsamples = 2\nvalue = 24.1"] ;
207 -> 208 ;
209 [label="mse = 0.0\nsamples = 1\nvalue = 23.9"] ;
208 -> 209 ;
210 [label="mse = -0.0\nsamples = 1\nvalue = 24.3"] ;
208 -> 210 ;
211 [label="mse = 0.0\nsamples = 2\nvalue = 25.0"] ;
207 -> 211 ;
212 [label="X[7] <= 3.883\nmse = 0.01\nsamples = 2\nvalue = 21.5"] ;
206 -> 212 ;
213 [label="mse = 0.0\nsamples = 1\nvalue = 21.6"] ;
212 -> 213 ;
214 [label="mse = 0.0\nsamples = 1\nvalue = 21.4"] ;
212 -> 214 ;
215 [label="X[11] <= 392.925\nmse = 3.989\nsamples = 10\nvalue = 26.09"] ;
205 -> 215 ;
216 [label="X[7] <= 4.719\nmse = 2.826\nsamples = 5\nvalue = 27.34"] ;
215 -> 216 ;
217 [label="X[4] <= 0.498\nmse = 0.14\nsamples = 3\nvalue = 28.6"] ;
216 -> 217 ;
218 [label="mse = 0.0\nsamples = 1\nvalue = 28.1"] ;
217 -> 218 ;
219 [label="X[12] <= 8.87\nmse = 0.023\nsamples = 2\nvalue = 28.85"] ;
217 -> 219 ;
220 [label="mse = 0.0\nsamples = 1\nvalue = 29.0"] ;
219 -> 220 ;
221 [label="mse = -0.0\nsamples = 1\nvalue = 28.7"] ;
219 -> 221 ;
222 [label="X[5] <= 6.464\nmse = 0.902\nsamples = 2\nvalue = 25.45"] ;
216 -> 222 ;
223 [label="mse = 0.0\nsamples = 1\nvalue = 24.5"] ;
222 -> 223 ;
224 [label="mse = 0.0\nsamples = 1\nvalue = 26.4"] ;
222 -> 224 ;
225 [label="X[10] <= 20.55\nmse = 2.026\nsamples = 5\nvalue = 24.84"] ;
215 -> 225 ;
226 [label="X[9] <= 290.0\nmse = 0.322\nsamples = 4\nvalue = 24.175"] ;
225 -> 226 ;
227 [label="X[11] <= 395.27\nmse = 0.09\nsamples = 2\nvalue = 24.7"] ;
226 -> 227 ;
228 [label="mse = 0.0\nsamples = 1\nvalue = 24.4"] ;
227 -> 228 ;
229 [label="mse = 0.0\nsamples = 1\nvalue = 25.0"] ;
227 -> 229 ;
230 [label="X[12] <= 8.39\nmse = 0.003\nsamples = 2\nvalue = 23.65"] ;
226 -> 230 ;
231 [label="mse = 0.0\nsamples = 1\nvalue = 23.7"] ;
230 -> 231 ;
232 [label="mse = 0.0\nsamples = 1\nvalue = 23.6"] ;
230 -> 232 ;
233 [label="mse = 0.0\nsamples = 1\nvalue = 27.5"] ;
225 -> 233 ;
234 [label="X[11] <= 213.995\nmse = 2.878\nsamples = 32\nvalue = 20.85"] ;
188 -> 234 ;
235 [label="X[9] <= 525.0\nmse = 1.562\nsamples = 2\nvalue = 17.35"] ;
234 -> 235 ;
236 [label="mse = 0.0\nsamples = 1\nvalue = 18.6"] ;
235 -> 236 ;
237 [label="mse = 0.0\nsamples = 1\nvalue = 16.1"] ;
235 -> 237 ;
238 [label="X[6] <= 83.8\nmse = 2.095\nsamples = 30\nvalue = 21.083"] ;
234 -> 238 ;
239 [label="X[5] <= 6.321\nmse = 1.48\nsamples = 16\nvalue = 21.75"] ;
238 -> 239 ;
240 [label="X[5] <= 6.246\nmse = 0.878\nsamples = 13\nvalue = 21.354"] ;
239 -> 240 ;
241 [label="X[0] <= 2.368\nmse = 0.617\nsamples = 11\nvalue = 21.591"] ;
240 -> 241 ;
242 [label="X[12] <= 10.805\nmse = 0.133\nsamples = 7\nvalue = 21.114"] ;
241 -> 242 ;
243 [label="X[7] <= 6.073\nmse = 0.023\nsamples = 2\nvalue = 20.65"] ;
242 -> 243 ;
244 [label="mse = 0.0\nsamples = 1\nvalue = 20.8"] ;
243 -> 244 ;
245 [label="mse = 0.0\nsamples = 1\nvalue = 20.5"] ;
243 -> 245 ;
246 [label="X[2] <= 9.23\nmse = 0.056\nsamples = 5\nvalue = 21.3"] ;
242 -> 246 ;
247 [label="X[0] <= 0.111\nmse = 0.023\nsamples = 2\nvalue = 21.55"] ;
246 -> 247 ;
248 [label="mse = 0.0\nsamples = 1\nvalue = 21.7"] ;
247 -> 248 ;
249 [label="mse = 0.0\nsamples = 1\nvalue = 21.4"] ;
247 -> 249 ;
250 [label="X[0] <= 0.304\nmse = 0.009\nsamples = 3\nvalue = 21.133"] ;
246 -> 250 ;
251 [label="mse = -0.0\nsamples = 2\nvalue = 21.2"] ;
250 -> 251 ;
252 [label="mse = 0.0\nsamples = 1\nvalue = 21.0"] ;
250 -> 252 ;
253 [label="X[12] <= 12.945\nmse = 0.372\nsamples = 4\nvalue = 22.425"] ;
241 -> 253 ;
254 [label="X[12] <= 11.11\nmse = 0.029\nsamples = 3\nvalue = 22.767"] ;
253 -> 254 ;
255 [label="mse = 0.0\nsamples = 1\nvalue = 23.0"] ;
254 -> 255 ;
256 [label="X[6] <= 82.35\nmse = 0.003\nsamples = 2\nvalue = 22.65"] ;
254 -> 256 ;
257 [label="mse = 0.0\nsamples = 1\nvalue = 22.6"] ;
256 -> 257 ;
258 [label="mse = 0.0\nsamples = 1\nvalue = 22.7"] ;
256 -> 258 ;
259 [label="mse = -0.0\nsamples = 1\nvalue = 21.4"] ;
253 -> 259 ;
260 [label="X[8] <= 14.0\nmse = 0.302\nsamples = 2\nvalue = 20.05"] ;
240 -> 260 ;
261 [label="mse = 0.0\nsamples = 1\nvalue = 20.6"] ;
260 -> 261 ;
262 [label="mse = 0.0\nsamples = 1\nvalue = 19.5"] ;
260 -> 262 ;
263 [label="X[7] <= 3.626\nmse = 0.462\nsamples = 3\nvalue = 23.467"] ;
239 -> 263 ;
264 [label="X[12] <= 12.26\nmse = 0.04\nsamples = 2\nvalue = 23.0"] ;
263 -> 264 ;
265 [label="mse = 0.0\nsamples = 1\nvalue = 22.8"] ;
264 -> 265 ;
266 [label="mse = -0.0\nsamples = 1\nvalue = 23.2"] ;
264 -> 266 ;
267 [label="mse = 0.0\nsamples = 1\nvalue = 24.4"] ;
263 -> 267 ;
268 [label="X[11] <= 386.85\nmse = 1.709\nsamples = 14\nvalue = 20.321"] ;
238 -> 268 ;
269 [label="X[12] <= 11.65\nmse = 0.951\nsamples = 6\nvalue = 21.517"] ;
268 -> 269 ;
270 [label="X[4] <= 0.615\nmse = 0.123\nsamples = 2\nvalue = 22.65"] ;
269 -> 270 ;
271 [label="mse = 0.0\nsamples = 1\nvalue = 22.3"] ;
270 -> 271 ;
272 [label="mse = 0.0\nsamples = 1\nvalue = 23.0"] ;
270 -> 272 ;
273 [label="X[11] <= 361.725\nmse = 0.403\nsamples = 4\nvalue = 20.95"] ;
269 -> 273 ;
274 [label="mse = 0.0\nsamples = 1\nvalue = 19.9"] ;
273 -> 274 ;
275 [label="X[7] <= 3.095\nmse = 0.047\nsamples = 3\nvalue = 21.3"] ;
273 -> 275 ;
276 [label="X[4] <= 0.743\nmse = 0.002\nsamples = 2\nvalue = 21.45"] ;
275 -> 276 ;
277 [label="mse = 0.0\nsamples = 1\nvalue = 21.4"] ;
276 -> 277 ;
278 [label="mse = 0.0\nsamples = 1\nvalue = 21.5"] ;
276 -> 278 ;
279 [label="mse = 0.0\nsamples = 1\nvalue = 21.0"] ;
275 -> 279 ;
280 [label="X[11] <= 390.715\nmse = 0.402\nsamples = 8\nvalue = 19.425"] ;
268 -> 280 ;
281 [label="X[10] <= 19.4\nmse = 0.002\nsamples = 2\nvalue = 18.45"] ;
280 -> 281 ;
282 [label="mse = 0.0\nsamples = 1\nvalue = 18.5"] ;
281 -> 282 ;
283 [label="mse = 0.0\nsamples = 1\nvalue = 18.4"] ;
281 -> 283 ;
284 [label="X[6] <= 90.35\nmse = 0.113\nsamples = 6\nvalue = 19.75"] ;
280 -> 284 ;
285 [label="X[10] <= 20.55\nmse = 0.003\nsamples = 2\nvalue = 20.15"] ;
284 -> 285 ;
286 [label="mse = 0.0\nsamples = 1\nvalue = 20.2"] ;
285 -> 286 ;
287 [label="mse = 0.0\nsamples = 1\nvalue = 20.1"] ;
285 -> 287 ;
288 [label="X[6] <= 98.3\nmse = 0.048\nsamples = 4\nvalue = 19.55"] ;
284 -> 288 ;
289 [label="X[5] <= 6.4\nmse = 0.009\nsamples = 3\nvalue = 19.667"] ;
288 -> 289 ;
290 [label="mse = 0.0\nsamples = 2\nvalue = 19.6"] ;
289 -> 290 ;
291 [label="mse = -0.0\nsamples = 1\nvalue = 19.8"] ;
289 -> 291 ;
292 [label="mse = -0.0\nsamples = 1\nvalue = 19.2"] ;
288 -> 292 ;
293 [label="X[7] <= 2.004\nmse = 18.809\nsamples = 122\nvalue = 15.016"] ;
1 -> 293 ;
294 [label="X[9] <= 551.5\nmse = 13.123\nsamples = 61\nvalue = 12.423"] ;
293 -> 294 ;
295 [label="X[12] <= 15.965\nmse = 4.666\nsamples = 17\nvalue = 16.147"] ;
294 -> 295 ;
296 [label="X[5] <= 6.057\nmse = 3.508\nsamples = 6\nvalue = 18.083"] ;
295 -> 296 ;
297 [label="X[8] <= 3.5\nmse = 1.0\nsamples = 2\nvalue = 20.4"] ;
296 -> 297 ;
298 [label="mse = 0.0\nsamples = 1\nvalue = 21.4"] ;
297 -> 298 ;
299 [label="mse = 0.0\nsamples = 1\nvalue = 19.4"] ;
297 -> 299 ;
300 [label="X[6] <= 89.3\nmse = 0.737\nsamples = 4\nvalue = 16.925"] ;
296 -> 300 ;
301 [label="mse = 0.0\nsamples = 1\nvalue = 15.6"] ;
300 -> 301 ;
302 [label="X[0] <= 0.339\nmse = 0.202\nsamples = 3\nvalue = 17.367"] ;
300 -> 302 ;
303 [label="mse = 0.0\nsamples = 1\nvalue = 18.0"] ;
302 -> 303 ;
304 [label="X[7] <= 1.8\nmse = 0.002\nsamples = 2\nvalue = 17.05"] ;
302 -> 304 ;
305 [label="mse = 0.0\nsamples = 1\nvalue = 17.0"] ;
304 -> 305 ;
306 [label="mse = 0.0\nsamples = 1\nvalue = 17.1"] ;
304 -> 306 ;
307 [label="X[12] <= 28.06\nmse = 2.137\nsamples = 11\nvalue = 15.091"] ;
295 -> 307 ;
308 [label="X[8] <= 3.0\nmse = 1.544\nsamples = 10\nvalue = 14.82"] ;
307 -> 308 ;
309 [label="X[5] <= 5.734\nmse = 0.64\nsamples = 2\nvalue = 16.5"] ;
308 -> 309 ;
310 [label="mse = 0.0\nsamples = 1\nvalue = 15.7"] ;
309 -> 310 ;
311 [label="mse = -0.0\nsamples = 1\nvalue = 17.3"] ;
309 -> 311 ;
312 [label="X[5] <= 5.436\nmse = 0.887\nsamples = 8\nvalue = 14.4"] ;
308 -> 312 ;
313 [label="X[6] <= 97.0\nmse = 0.022\nsamples = 2\nvalue = 13.25"] ;
312 -> 313 ;
314 [label="mse = 0.0\nsamples = 1\nvalue = 13.1"] ;
313 -> 314 ;
315 [label="mse = -0.0\nsamples = 1\nvalue = 13.4"] ;
313 -> 315 ;
316 [label="X[5] <= 5.632\nmse = 0.588\nsamples = 6\nvalue = 14.783"] ;
312 -> 316 ;
317 [label="X[6] <= 97.45\nmse = 0.009\nsamples = 3\nvalue = 15.533"] ;
316 -> 317 ;
318 [label="mse = 0.0\nsamples = 1\nvalue = 15.4"] ;
317 -> 318 ;
319 [label="mse = -0.0\nsamples = 2\nvalue = 15.6"] ;
317 -> 319 ;
320 [label="X[11] <= 392.49\nmse = 0.042\nsamples = 3\nvalue = 14.033"] ;
316 -> 320 ;
321 [label="X[12] <= 25.98\nmse = 0.01\nsamples = 2\nvalue = 13.9"] ;
320 -> 321 ;
322 [label="mse = 0.0\nsamples = 1\nvalue = 14.0"] ;
321 -> 322 ;
323 [label="mse = 0.0\nsamples = 1\nvalue = 13.8"] ;
321 -> 323 ;
324 [label="mse = 0.0\nsamples = 1\nvalue = 14.3"] ;
320 -> 324 ;
325 [label="mse = -0.0\nsamples = 1\nvalue = 17.8"] ;
307 -> 325 ;
326 [label="X[4] <= 0.603\nmse = 8.962\nsamples = 44\nvalue = 10.984"] ;
294 -> 326 ;
327 [label="X[11] <= 26.72\nmse = 9.335\nsamples = 4\nvalue = 15.4"] ;
326 -> 327 ;
328 [label="mse = 0.0\nsamples = 1\nvalue = 10.2"] ;
327 -> 328 ;
329 [label="X[0] <= 23.733\nmse = 0.429\nsamples = 3\nvalue = 17.133"] ;
327 -> 329 ;
330 [label="X[12] <= 30.385\nmse = 0.123\nsamples = 2\nvalue = 17.55"] ;
329 -> 330 ;
331 [label="mse = 0.0\nsamples = 1\nvalue = 17.2"] ;
330 -> 331 ;
332 [label="mse = 0.0\nsamples = 1\nvalue = 17.9"] ;
330 -> 332 ;
333 [label="mse = 0.0\nsamples = 1\nvalue = 16.3"] ;
329 -> 333 ;
334 [label="X[12] <= 19.57\nmse = 6.779\nsamples = 40\nvalue = 10.542"] ;
326 -> 334 ;
335 [label="X[11] <= 173.735\nmse = 3.278\nsamples = 10\nvalue = 13.25"] ;
334 -> 335 ;
336 [label="X[5] <= 6.332\nmse = 0.422\nsamples = 2\nvalue = 10.25"] ;
335 -> 336 ;
337 [label="mse = 0.0\nsamples = 1\nvalue = 10.9"] ;
336 -> 337 ;
338 [label="mse = 0.0\nsamples = 1\nvalue = 9.6"] ;
336 -> 338 ;
339 [label="X[7] <= 1.806\nmse = 1.18\nsamples = 8\nvalue = 14.0"] ;
335 -> 339 ;
340 [label="X[7] <= 1.787\nmse = 0.247\nsamples = 4\nvalue = 13.025"] ;
339 -> 340 ;
341 [label="X[6] <= 97.4\nmse = 0.062\nsamples = 3\nvalue = 12.767"] ;
340 -> 341 ;
342 [label="X[12] <= 17.86\nmse = 0.01\nsamples = 2\nvalue = 12.6"] ;
341 -> 342 ;
343 [label="mse = 0.0\nsamples = 1\nvalue = 12.7"] ;
342 -> 343 ;
344 [label="mse = -0.0\nsamples = 1\nvalue = 12.5"] ;
342 -> 344 ;
345 [label="mse = -0.0\nsamples = 1\nvalue = 13.1"] ;
341 -> 345 ;
346 [label="mse = -0.0\nsamples = 1\nvalue = 13.8"] ;
340 -> 346 ;
347 [label="X[12] <= 16.405\nmse = 0.212\nsamples = 4\nvalue = 14.975"] ;
339 -> 347 ;
348 [label="mse = 0.0\nsamples = 1\nvalue = 14.2"] ;
347 -> 348 ;
349 [label="X[11] <= 390.58\nmse = 0.016\nsamples = 3\nvalue = 15.233"] ;
347 -> 349 ;
350 [label="mse = 0.0\nsamples = 1\nvalue = 15.4"] ;
349 -> 350 ;
351 [label="X[0] <= 3.557\nmse = 0.002\nsamples = 2\nvalue = 15.15"] ;
349 -> 351 ;
352 [label="mse = 0.0\nsamples = 1\nvalue = 15.2"] ;
351 -> 352 ;
353 [label="mse = 0.0\nsamples = 1\nvalue = 15.1"] ;
351 -> 353 ;
354 [label="X[7] <= 1.365\nmse = 4.688\nsamples = 30\nvalue = 9.64"] ;
334 -> 354 ;
355 [label="X[0] <= 19.607\nmse = 0.847\nsamples = 3\nvalue = 13.2"] ;
354 -> 355 ;
356 [label="X[6] <= 96.65\nmse = 0.002\nsamples = 2\nvalue = 13.85"] ;
355 -> 356 ;
357 [label="mse = 0.0\nsamples = 1\nvalue = 13.9"] ;
356 -> 357 ;
358 [label="mse = -0.0\nsamples = 1\nvalue = 13.8"] ;
356 -> 358 ;
359 [label="mse = 0.0\nsamples = 1\nvalue = 11.9"] ;
355 -> 359 ;
360 [label="X[7] <= 1.577\nmse = 3.551\nsamples = 27\nvalue = 9.244"] ;
354 -> 360 ;
361 [label="X[7] <= 1.406\nmse = 2.795\nsamples = 6\nvalue = 7.483"] ;
360 -> 361 ;
362 [label="mse = 0.0\nsamples = 1\nvalue = 10.2"] ;
361 -> 362 ;
363 [label="X[0] <= 45.259\nmse = 1.582\nsamples = 5\nvalue = 6.94"] ;
361 -> 363 ;
364 [label="X[7] <= 1.47\nmse = 0.802\nsamples = 4\nvalue = 7.425"] ;
363 -> 364 ;
365 [label="mse = 0.0\nsamples = 1\nvalue = 8.8"] ;
364 -> 365 ;
366 [label="X[6] <= 83.65\nmse = 0.229\nsamples = 3\nvalue = 6.967"] ;
364 -> 366 ;
367 [label="mse = 0.0\nsamples = 1\nvalue = 6.3"] ;
366 -> 367 ;
368 [label="X[7] <= 1.546\nmse = 0.01\nsamples = 2\nvalue = 7.3"] ;
366 -> 368 ;
369 [label="mse = 0.0\nsamples = 1\nvalue = 7.4"] ;
368 -> 369 ;
370 [label="mse = -0.0\nsamples = 1\nvalue = 7.2"] ;
368 -> 370 ;
371 [label="mse = 0.0\nsamples = 1\nvalue = 5.0"] ;
363 -> 371 ;
372 [label="X[12] <= 23.88\nmse = 2.627\nsamples = 21\nvalue = 9.748"] ;
360 -> 372 ;
373 [label="X[12] <= 20.115\nmse = 2.308\nsamples = 10\nvalue = 10.52"] ;
372 -> 373 ;
374 [label="X[11] <= 395.0\nmse = 0.01\nsamples = 2\nvalue = 8.4"] ;
373 -> 374 ;
375 [label="mse = 0.0\nsamples = 1\nvalue = 8.5"] ;
374 -> 375 ;
376 [label="mse = 0.0\nsamples = 1\nvalue = 8.3"] ;
374 -> 376 ;
377 [label="X[6] <= 77.3\nmse = 1.477\nsamples = 8\nvalue = 11.05"] ;
373 -> 377 ;
378 [label="mse = 0.0\nsamples = 1\nvalue = 8.4"] ;
377 -> 378 ;
379 [label="X[7] <= 1.842\nmse = 0.542\nsamples = 7\nvalue = 11.429"] ;
377 -> 379 ;
380 [label="X[5] <= 5.582\nmse = 0.342\nsamples = 4\nvalue = 11.925"] ;
379 -> 380 ;
381 [label="X[7] <= 1.654\nmse = 0.01\nsamples = 2\nvalue = 11.4"] ;
380 -> 381 ;
382 [label="mse = 0.0\nsamples = 1\nvalue = 11.3"] ;
381 -> 382 ;
383 [label="mse = 0.0\nsamples = 1\nvalue = 11.5"] ;
381 -> 383 ;
384 [label="X[12] <= 21.595\nmse = 0.123\nsamples = 2\nvalue = 12.45"] ;
380 -> 384 ;
385 [label="mse = 0.0\nsamples = 1\nvalue = 12.1"] ;
384 -> 385 ;
386 [label="mse = 0.0\nsamples = 1\nvalue = 12.8"] ;
384 -> 386 ;
387 [label="X[7] <= 1.881\nmse = 0.042\nsamples = 3\nvalue = 10.767"] ;
379 -> 387 ;
388 [label="mse = 0.0\nsamples = 1\nvalue = 10.5"] ;
387 -> 388 ;
389 [label="X[11] <= 168.625\nmse = 0.01\nsamples = 2\nvalue = 10.9"] ;
387 -> 389 ;
390 [label="mse = 0.0\nsamples = 1\nvalue = 11.0"] ;
389 -> 390 ;
391 [label="mse = 0.0\nsamples = 1\nvalue = 10.8"] ;
389 -> 391 ;
392 [label="X[7] <= 1.978\nmse = 1.882\nsamples = 11\nvalue = 9.045"] ;
372 -> 392 ;
393 [label="X[5] <= 5.359\nmse = 1.236\nsamples = 10\nvalue = 8.77"] ;
392 -> 393 ;
394 [label="X[7] <= 1.796\nmse = 0.815\nsamples = 4\nvalue = 9.6"] ;
393 -> 394 ;
395 [label="X[7] <= 1.709\nmse = 0.087\nsamples = 3\nvalue = 10.1"] ;
394 -> 395 ;
396 [label="X[0] <= 20.137\nmse = 0.01\nsamples = 2\nvalue = 10.3"] ;
395 -> 396 ;
397 [label="mse = 0.0\nsamples = 1\nvalue = 10.2"] ;
396 -> 397 ;
398 [label="mse = -0.0\nsamples = 1\nvalue = 10.4"] ;
396 -> 398 ;
399 [label="mse = -0.0\nsamples = 1\nvalue = 9.7"] ;
395 -> 399 ;
400 [label="mse = -0.0\nsamples = 1\nvalue = 8.1"] ;
394 -> 400 ;
401 [label="X[7] <= 1.874\nmse = 0.751\nsamples = 6\nvalue = 8.217"] ;
393 -> 401 ;
402 [label="X[4] <= 0.686\nmse = 0.462\nsamples = 4\nvalue = 7.775"] ;
401 -> 402 ;
403 [label="X[8] <= 14.0\nmse = 0.01\nsamples = 2\nvalue = 7.1"] ;
402 -> 403 ;
404 [label="mse = 0.0\nsamples = 1\nvalue = 7.0"] ;
403 -> 404 ;
405 [label="mse = 0.0\nsamples = 1\nvalue = 7.2"] ;
403 -> 405 ;
406 [label="X[12] <= 30.7\nmse = 0.003\nsamples = 2\nvalue = 8.45"] ;
402 -> 406 ;
407 [label="mse = 0.0\nsamples = 1\nvalue = 8.5"] ;
406 -> 407 ;
408 [label="mse = 0.0\nsamples = 1\nvalue = 8.4"] ;
406 -> 408 ;
409 [label="X[12] <= 25.265\nmse = 0.16\nsamples = 2\nvalue = 9.1"] ;
401 -> 409 ;
410 [label="mse = 0.0\nsamples = 1\nvalue = 9.5"] ;
409 -> 410 ;
411 [label="mse = 0.0\nsamples = 1\nvalue = 8.7"] ;
409 -> 411 ;
412 [label="mse = 0.0\nsamples = 1\nvalue = 11.8"] ;
392 -> 412 ;
413 [label="X[0] <= 0.554\nmse = 11.052\nsamples = 61\nvalue = 17.608"] ;
293 -> 413 ;
414 [label="X[7] <= 6.016\nmse = 6.676\nsamples = 26\nvalue = 19.923"] ;
413 -> 414 ;
415 [label="X[7] <= 5.701\nmse = 5.363\nsamples = 20\nvalue = 20.685"] ;
414 -> 415 ;
416 [label="X[7] <= 2.571\nmse = 3.366\nsamples = 19\nvalue = 20.347"] ;
415 -> 416 ;
417 [label="X[4] <= 0.583\nmse = 0.679\nsamples = 8\nvalue = 19.025"] ;
416 -> 417 ;
418 [label="X[5] <= 5.876\nmse = 0.397\nsamples = 7\nvalue = 19.243"] ;
417 -> 418 ;
419 [label="X[2] <= 9.285\nmse = 0.18\nsamples = 3\nvalue = 19.8"] ;
418 -> 419 ;
420 [label="mse = 0.0\nsamples = 2\nvalue = 19.5"] ;
419 -> 420 ;
421 [label="mse = -0.0\nsamples = 1\nvalue = 20.4"] ;
419 -> 421 ;
422 [label="X[10] <= 20.0\nmse = 0.152\nsamples = 4\nvalue = 18.825"] ;
418 -> 422 ;
423 [label="X[11] <= 362.145\nmse = 0.056\nsamples = 3\nvalue = 18.633"] ;
422 -> 423 ;
424 [label="mse = 0.0\nsamples = 1\nvalue = 18.3"] ;
423 -> 424 ;
425 [label="mse = -0.0\nsamples = 2\nvalue = 18.8"] ;
423 -> 425 ;
426 [label="mse = -0.0\nsamples = 1\nvalue = 19.4"] ;
422 -> 426 ;
427 [label="mse = 0.0\nsamples = 1\nvalue = 17.5"] ;
417 -> 427 ;
428 [label="X[0] <= 0.304\nmse = 3.123\nsamples = 11\nvalue = 21.309"] ;
416 -> 428 ;
429 [label="X[7] <= 3.732\nmse = 1.459\nsamples = 7\nvalue = 22.229"] ;
428 -> 429 ;
430 [label="X[2] <= 10.14\nmse = 0.08\nsamples = 3\nvalue = 23.3"] ;
429 -> 430 ;
431 [label="mse = 0.0\nsamples = 2\nvalue = 23.1"] ;
430 -> 431 ;
432 [label="mse = -0.0\nsamples = 1\nvalue = 23.7"] ;
430 -> 432 ;
433 [label="X[5] <= 5.783\nmse = 0.987\nsamples = 4\nvalue = 21.425"] ;
429 -> 433 ;
434 [label="mse = 0.0\nsamples = 1\nvalue = 19.8"] ;
433 -> 434 ;
435 [label="X[5] <= 5.836\nmse = 0.142\nsamples = 3\nvalue = 21.967"] ;
433 -> 435 ;
436 [label="mse = 0.0\nsamples = 1\nvalue = 22.5"] ;
435 -> 436 ;
437 [label="mse = -0.0\nsamples = 2\nvalue = 21.7"] ;
435 -> 437 ;
438 [label="X[7] <= 3.357\nmse = 1.965\nsamples = 4\nvalue = 19.7"] ;
428 -> 438 ;
439 [label="mse = 0.0\nsamples = 1\nvalue = 21.7"] ;
438 -> 439 ;
440 [label="X[0] <= 0.347\nmse = 0.842\nsamples = 3\nvalue = 19.033"] ;
438 -> 440 ;
441 [label="mse = 0.0\nsamples = 1\nvalue = 17.8"] ;
440 -> 441 ;
442 [label="X[12] <= 23.535\nmse = 0.123\nsamples = 2\nvalue = 19.65"] ;
440 -> 442 ;
443 [label="mse = 0.0\nsamples = 1\nvalue = 20.0"] ;
442 -> 443 ;
444 [label="mse = 0.0\nsamples = 1\nvalue = 19.3"] ;
442 -> 444 ;
445 [label="mse = 0.0\nsamples = 1\nvalue = 27.1"] ;
415 -> 445 ;
446 [label="X[4] <= 0.451\nmse = 2.665\nsamples = 6\nvalue = 17.383"] ;
414 -> 446 ;
447 [label="X[0] <= 0.206\nmse = 0.136\nsamples = 3\nvalue = 18.933"] ;
446 -> 447 ;
448 [label="X[0] <= 0.102\nmse = 0.04\nsamples = 2\nvalue = 18.7"] ;
447 -> 448 ;
449 [label="mse = 0.0\nsamples = 1\nvalue = 18.9"] ;
448 -> 449 ;
450 [label="mse = 0.0\nsamples = 1\nvalue = 18.5"] ;
448 -> 450 ;
451 [label="mse = 0.0\nsamples = 1\nvalue = 19.4"] ;
447 -> 451 ;
452 [label="X[11] <= 389.575\nmse = 0.389\nsamples = 3\nvalue = 15.833"] ;
446 -> 452 ;
453 [label="X[0] <= 0.191\nmse = 0.062\nsamples = 2\nvalue = 16.25"] ;
452 -> 453 ;
454 [label="mse = 0.0\nsamples = 1\nvalue = 16.0"] ;
453 -> 454 ;
455 [label="mse = 0.0\nsamples = 1\nvalue = 16.5"] ;
453 -> 455 ;
456 [label="mse = 0.0\nsamples = 1\nvalue = 15.0"] ;
452 -> 456 ;
457 [label="X[6] <= 84.9\nmse = 7.365\nsamples = 35\nvalue = 15.889"] ;
413 -> 457 ;
458 [label="X[11] <= 320.475\nmse = 7.178\nsamples = 10\nvalue = 18.6"] ;
457 -> 458 ;
459 [label="X[11] <= 127.305\nmse = 5.927\nsamples = 3\nvalue = 15.7"] ;
458 -> 459 ;
460 [label="mse = 0.0\nsamples = 1\nvalue = 19.0"] ;
459 -> 460 ;
461 [label="X[6] <= 82.85\nmse = 0.722\nsamples = 2\nvalue = 14.05"] ;
459 -> 461 ;
462 [label="mse = 0.0\nsamples = 1\nvalue = 13.2"] ;
461 -> 462 ;
463 [label="mse = -0.0\nsamples = 1\nvalue = 14.9"] ;
461 -> 463 ;
464 [label="X[12] <= 18.445\nmse = 2.565\nsamples = 7\nvalue = 19.843"] ;
458 -> 464 ;
465 [label="X[2] <= 13.12\nmse = 0.801\nsamples = 6\nvalue = 19.283"] ;
464 -> 465 ;
466 [label="mse = 0.0\nsamples = 1\nvalue = 17.5"] ;
465 -> 466 ;
467 [label="X[11] <= 394.79\nmse = 0.198\nsamples = 5\nvalue = 19.64"] ;
465 -> 467 ;
468 [label="mse = 0.0\nsamples = 2\nvalue = 19.1"] ;
467 -> 468 ;
469 [label="X[5] <= 5.897\nmse = 0.007\nsamples = 3\nvalue = 20.0"] ;
467 -> 469 ;
470 [label="mse = 0.0\nsamples = 1\nvalue = 20.1"] ;
469 -> 470 ;
471 [label="X[6] <= 84.2\nmse = 0.002\nsamples = 2\nvalue = 19.95"] ;
469 -> 471 ;
472 [label="mse = 0.0\nsamples = 1\nvalue = 19.9"] ;
471 -> 472 ;
473 [label="mse = 0.0\nsamples = 1\nvalue = 20.0"] ;
471 -> 473 ;
474 [label="mse = -0.0\nsamples = 1\nvalue = 23.2"] ;
464 -> 474 ;
475 [label="X[0] <= 9.825\nmse = 3.323\nsamples = 25\nvalue = 14.804"] ;
457 -> 475 ;
476 [label="X[5] <= 5.735\nmse = 2.732\nsamples = 21\nvalue = 15.2"] ;
475 -> 476 ;
477 [label="X[5] <= 5.65\nmse = 0.212\nsamples = 4\nvalue = 13.325"] ;
476 -> 477 ;
478 [label="X[0] <= 1.046\nmse = 0.022\nsamples = 2\nvalue = 13.75"] ;
477 -> 478 ;
479 [label="mse = 0.0\nsamples = 1\nvalue = 13.9"] ;
478 -> 479 ;
480 [label="mse = -0.0\nsamples = 1\nvalue = 13.6"] ;
478 -> 480 ;
481 [label="X[0] <= 1.141\nmse = 0.04\nsamples = 2\nvalue = 12.9"] ;
477 -> 481 ;
482 [label="mse = 0.0\nsamples = 1\nvalue = 12.7"] ;
481 -> 482 ;
483 [label="mse = 0.0\nsamples = 1\nvalue = 13.1"] ;
481 -> 483 ;
484 [label="X[11] <= 251.77\nmse = 2.304\nsamples = 17\nvalue = 15.641"] ;
476 -> 484 ;
485 [label="X[4] <= 0.576\nmse = 0.002\nsamples = 3\nvalue = 13.433"] ;
484 -> 485 ;
486 [label="mse = 0.0\nsamples = 1\nvalue = 13.5"] ;
485 -> 486 ;
487 [label="mse = 0.0\nsamples = 2\nvalue = 13.4"] ;
485 -> 487 ;
488 [label="X[12] <= 20.6\nmse = 1.528\nsamples = 14\nvalue = 16.114"] ;
484 -> 488 ;
489 [label="X[0] <= 7.636\nmse = 0.907\nsamples = 13\nvalue = 15.885"] ;
488 -> 489 ;
490 [label="X[12] <= 17.275\nmse = 0.524\nsamples = 11\nvalue = 15.6"] ;
489 -> 490 ;
491 [label="X[6] <= 92.95\nmse = 0.142\nsamples = 4\nvalue = 16.175"] ;
490 -> 491 ;
492 [label="X[0] <= 4.951\nmse = 0.042\nsamples = 3\nvalue = 16.367"] ;
491 -> 492 ;
493 [label="X[11] <= 316.055\nmse = 0.01\nsamples = 2\nvalue = 16.5"] ;
492 -> 493 ;
494 [label="mse = 0.0\nsamples = 1\nvalue = 16.4"] ;
493 -> 494 ;
495 [label="mse = -0.0\nsamples = 1\nvalue = 16.6"] ;
493 -> 495 ;
496 [label="mse = 0.0\nsamples = 1\nvalue = 16.1"] ;
492 -> 496 ;
497 [label="mse = 0.0\nsamples = 1\nvalue = 15.6"] ;
491 -> 497 ;
498 [label="X[5] <= 6.413\nmse = 0.445\nsamples = 7\nvalue = 15.271"] ;
490 -> 498 ;
499 [label="X[10] <= 21.1\nmse = 0.14\nsamples = 5\nvalue = 15.0"] ;
498 -> 499 ;
500 [label="X[11] <= 395.72\nmse = 0.063\nsamples = 4\nvalue = 14.85"] ;
499 -> 500 ;
501 [label="X[5] <= 5.93\nmse = 0.029\nsamples = 3\nvalue = 14.733"] ;
500 -> 501 ;
502 [label="mse = 0.0\nsamples = 1\nvalue = 14.5"] ;
501 -> 502 ;
503 [label="X[11] <= 312.195\nmse = 0.002\nsamples = 2\nvalue = 14.85"] ;
501 -> 503 ;
504 [label="mse = 0.0\nsamples = 1\nvalue = 14.8"] ;
503 -> 504 ;
505 [label="mse = -0.0\nsamples = 1\nvalue = 14.9"] ;
503 -> 505 ;
506 [label="mse = 0.0\nsamples = 1\nvalue = 15.2"] ;
500 -> 506 ;
507 [label="mse = -0.0\nsamples = 1\nvalue = 15.6"] ;
499 -> 507 ;
508 [label="X[7] <= 2.33\nmse = 0.562\nsamples = 2\nvalue = 15.95"] ;
498 -> 508 ;
509 [label="mse = 0.0\nsamples = 1\nvalue = 16.7"] ;
508 -> 509 ;
510 [label="mse = -0.0\nsamples = 1\nvalue = 15.2"] ;
508 -> 510 ;
511 [label="X[12] <= 18.56\nmse = 0.122\nsamples = 2\nvalue = 17.45"] ;
489 -> 511 ;
512 [label="mse = 0.0\nsamples = 1\nvalue = 17.8"] ;
511 -> 512 ;
513 [label="mse = -0.0\nsamples = 1\nvalue = 17.1"] ;
511 -> 513 ;
514 [label="mse = -0.0\nsamples = 1\nvalue = 19.1"] ;
488 -> 514 ;
515 [label="X[0] <= 12.073\nmse = 1.277\nsamples = 4\nvalue = 12.725"] ;
475 -> 515 ;
516 [label="X[11] <= 384.11\nmse = 1.0\nsamples = 2\nvalue = 13.6"] ;
515 -> 516 ;
517 [label="mse = 0.0\nsamples = 1\nvalue = 14.6"] ;
516 -> 517 ;
518 [label="mse = -0.0\nsamples = 1\nvalue = 12.6"] ;
516 -> 518 ;
519 [label="X[7] <= 2.161\nmse = 0.023\nsamples = 2\nvalue = 11.85"] ;
515 -> 519 ;
520 [label="mse = 0.0\nsamples = 1\nvalue = 12.0"] ;
519 -> 520 ;
521 [label="mse = 0.0\nsamples = 1\nvalue = 11.7"] ;
519 -> 521 ;
522 [label="X[5] <= 7.437\nmse = 72.347\nsamples = 63\nvalue = 36.9"] ;
0 -> 522 [labeldistance=2.5, labelangle=-45, headlabel="False"] ;
523 [label="X[7] <= 1.904\nmse = 28.601\nsamples = 41\nvalue = 32.276"] ;
522 -> 523 ;
524 [label="X[5] <= 6.979\nmse = 18.923\nsamples = 2\nvalue = 45.65"] ;
523 -> 524 ;
525 [label="mse = 0.0\nsamples = 1\nvalue = 41.3"] ;
524 -> 525 ;
526 [label="mse = 0.0\nsamples = 1\nvalue = 50.0"] ;
524 -> 526 ;
527 [label="X[12] <= 9.65\nmse = 19.454\nsamples = 39\nvalue = 31.59"] ;
523 -> 527 ;
528 [label="X[9] <= 267.0\nmse = 12.248\nsamples = 32\nvalue = 32.703"] ;
527 -> 528 ;
529 [label="X[5] <= 6.911\nmse = 4.184\nsamples = 15\nvalue = 34.56"] ;
528 -> 529 ;
530 [label="X[8] <= 4.5\nmse = 1.536\nsamples = 3\nvalue = 31.733"] ;
529 -> 530 ;
531 [label="X[3] <= 0.5\nmse = 0.303\nsamples = 2\nvalue = 32.55"] ;
530 -> 531 ;
532 [label="mse = 0.0\nsamples = 1\nvalue = 32.0"] ;
531 -> 532 ;
533 [label="mse = 0.0\nsamples = 1\nvalue = 33.1"] ;
531 -> 533 ;
534 [label="mse = -0.0\nsamples = 1\nvalue = 30.1"] ;
530 -> 534 ;
535 [label="X[9] <= 204.5\nmse = 2.349\nsamples = 12\nvalue = 35.267"] ;
529 -> 535 ;
536 [label="X[12] <= 4.93\nmse = 0.123\nsamples = 2\nvalue = 37.55"] ;
535 -> 536 ;
537 [label="mse = 0.0\nsamples = 1\nvalue = 37.9"] ;
536 -> 537 ;
538 [label="mse = 0.0\nsamples = 1\nvalue = 37.2"] ;
536 -> 538 ;
539 [label="X[7] <= 8.96\nmse = 1.543\nsamples = 10\nvalue = 34.81"] ;
535 -> 539 ;
540 [label="X[5] <= 7.335\nmse = 1.31\nsamples = 9\nvalue = 35.011"] ;
539 -> 540 ;
541 [label="X[12] <= 3.765\nmse = 1.109\nsamples = 8\nvalue = 35.213"] ;
540 -> 541 ;
542 [label="X[12] <= 2.46\nmse = 0.562\nsamples = 2\nvalue = 34.15"] ;
541 -> 542 ;
543 [label="mse = 0.0\nsamples = 1\nvalue = 34.9"] ;
542 -> 543 ;
544 [label="mse = -0.0\nsamples = 1\nvalue = 33.4"] ;
542 -> 544 ;
545 [label="X[12] <= 8.845\nmse = 0.789\nsamples = 6\nvalue = 35.567"] ;
541 -> 545 ;
546 [label="X[0] <= 0.046\nmse = 0.198\nsamples = 5\nvalue = 35.92"] ;
545 -> 546 ;
547 [label="mse = 0.0\nsamples = 2\nvalue = 35.4"] ;
546 -> 547 ;
548 [label="X[10] <= 15.7\nmse = 0.029\nsamples = 3\nvalue = 36.267"] ;
546 -> 548 ;
549 [label="mse = 0.0\nsamples = 1\nvalue = 36.5"] ;
548 -> 549 ;
550 [label="X[1] <= 16.5\nmse = 0.002\nsamples = 2\nvalue = 36.15"] ;
548 -> 550 ;
551 [label="mse = 0.0\nsamples = 1\nvalue = 36.2"] ;
550 -> 551 ;
552 [label="mse = -0.0\nsamples = 1\nvalue = 36.1"] ;
550 -> 552 ;
553 [label="mse = 0.0\nsamples = 1\nvalue = 33.8"] ;
545 -> 553 ;
554 [label="mse = 0.0\nsamples = 1\nvalue = 33.4"] ;
540 -> 554 ;
555 [label="mse = 0.0\nsamples = 1\nvalue = 33.0"] ;
539 -> 555 ;
556 [label="X[12] <= 5.445\nmse = 13.638\nsamples = 17\nvalue = 31.065"] ;
528 -> 556 ;
557 [label="X[9] <= 384.0\nmse = 5.954\nsamples = 11\nvalue = 32.782"] ;
556 -> 557 ;
558 [label="X[6] <= 13.85\nmse = 2.231\nsamples = 7\nvalue = 31.343"] ;
557 -> 558 ;
559 [label="X[11] <= 378.835\nmse = 0.09\nsamples = 2\nvalue = 29.3"] ;
558 -> 559 ;
560 [label="mse = 0.0\nsamples = 1\nvalue = 29.0"] ;
559 -> 560 ;
561 [label="mse = 0.0\nsamples = 1\nvalue = 29.6"] ;
559 -> 561 ;
562 [label="X[11] <= 390.25\nmse = 0.75\nsamples = 5\nvalue = 32.16"] ;
558 -> 562 ;
563 [label="X[1] <= 27.5\nmse = 0.042\nsamples = 3\nvalue = 31.467"] ;
562 -> 563 ;
564 [label="X[6] <= 74.25\nmse = 0.01\nsamples = 2\nvalue = 31.6"] ;
563 -> 564 ;
565 [label="mse = 0.0\nsamples = 1\nvalue = 31.5"] ;
564 -> 565 ;
566 [label="mse = -0.0\nsamples = 1\nvalue = 31.7"] ;
564 -> 566 ;
567 [label="mse = -0.0\nsamples = 1\nvalue = 31.2"] ;
563 -> 567 ;
568 [label="X[6] <= 25.9\nmse = 0.01\nsamples = 2\nvalue = 33.2"] ;
562 -> 568 ;
569 [label="mse = 0.0\nsamples = 1\nvalue = 33.1"] ;
568 -> 569 ;
570 [label="mse = -0.0\nsamples = 1\nvalue = 33.3"] ;
568 -> 570 ;
571 [label="X[0] <= 0.085\nmse = 2.505\nsamples = 4\nvalue = 35.3"] ;
557 -> 571 ;
572 [label="X[2] <= 2.455\nmse = 1.0\nsamples = 2\nvalue = 33.9"] ;
571 -> 572 ;
573 [label="mse = 0.0\nsamples = 1\nvalue = 32.9"] ;
572 -> 573 ;
574 [label="mse = 0.0\nsamples = 1\nvalue = 34.9"] ;
572 -> 574 ;
575 [label="X[6] <= 23.9\nmse = 0.09\nsamples = 2\nvalue = 36.7"] ;
571 -> 575 ;
576 [label="mse = 0.0\nsamples = 1\nvalue = 37.0"] ;
575 -> 576 ;
577 [label="mse = -0.0\nsamples = 1\nvalue = 36.4"] ;
575 -> 577 ;
578 [label="X[5] <= 7.075\nmse = 12.408\nsamples = 6\nvalue = 27.917"] ;
556 -> 578 ;
579 [label="X[9] <= 314.0\nmse = 0.382\nsamples = 3\nvalue = 24.467"] ;
578 -> 579 ;
580 [label="mse = 0.0\nsamples = 1\nvalue = 23.6"] ;
579 -> 580 ;
581 [label="X[11] <= 393.07\nmse = 0.01\nsamples = 2\nvalue = 24.9"] ;
579 -> 581 ;
582 [label="mse = 0.0\nsamples = 1\nvalue = 24.8"] ;
581 -> 582 ;
583 [label="mse = 0.0\nsamples = 1\nvalue = 25.0"] ;
581 -> 583 ;
584 [label="X[10] <= 13.95\nmse = 0.629\nsamples = 3\nvalue = 31.367"] ;
578 -> 584 ;
585 [label="mse = 0.0\nsamples = 1\nvalue = 30.3"] ;
584 -> 585 ;
586 [label="X[7] <= 5.261\nmse = 0.09\nsamples = 2\nvalue = 31.9"] ;
584 -> 586 ;
587 [label="mse = 0.0\nsamples = 1\nvalue = 31.6"] ;
586 -> 587 ;
588 [label="mse = 0.0\nsamples = 1\nvalue = 32.2"] ;
586 -> 588 ;
589 [label="X[0] <= 6.447\nmse = 20.823\nsamples = 7\nvalue = 26.5"] ;
527 -> 589 ;
590 [label="X[4] <= 0.468\nmse = 9.576\nsamples = 6\nvalue = 27.95"] ;
589 -> 590 ;
591 [label="mse = 0.0\nsamples = 1\nvalue = 22.0"] ;
590 -> 591 ;
592 [label="X[7] <= 2.697\nmse = 2.994\nsamples = 5\nvalue = 29.14"] ;
590 -> 592 ;
593 [label="X[10] <= 16.6\nmse = 0.26\nsamples = 3\nvalue = 30.5"] ;
592 -> 593 ;
594 [label="X[5] <= 7.17\nmse = 0.022\nsamples = 2\nvalue = 30.85"] ;
593 -> 594 ;
595 [label="mse = 0.0\nsamples = 1\nvalue = 30.7"] ;
594 -> 595 ;
596 [label="mse = -0.0\nsamples = 1\nvalue = 31.0"] ;
594 -> 596 ;
597 [label="mse = 0.0\nsamples = 1\nvalue = 29.8"] ;
593 -> 597 ;
598 [label="X[0] <= 0.491\nmse = 0.16\nsamples = 2\nvalue = 27.1"] ;
592 -> 598 ;
599 [label="mse = 0.0\nsamples = 1\nvalue = 26.7"] ;
598 -> 599 ;
600 [label="mse = -0.0\nsamples = 1\nvalue = 27.5"] ;
598 -> 600 ;
601 [label="mse = -0.0\nsamples = 1\nvalue = 17.8"] ;
589 -> 601 ;
602 [label="X[0] <= 2.742\nmse = 39.747\nsamples = 22\nvalue = 45.518"] ;
522 -> 602 ;
603 [label="X[0] <= 0.577\nmse = 13.812\nsamples = 21\nvalue = 46.643"] ;
602 -> 603 ;
604 [label="X[9] <= 259.5\nmse = 13.506\nsamples = 16\nvalue = 45.594"] ;
603 -> 604 ;
605 [label="X[5] <= 7.826\nmse = 6.101\nsamples = 7\nvalue = 47.914"] ;
604 -> 605 ;
606 [label="X[4] <= 0.418\nmse = 0.702\nsamples = 3\nvalue = 45.133"] ;
605 -> 606 ;
607 [label="mse = 0.0\nsamples = 1\nvalue = 44.0"] ;
606 -> 607 ;
608 [label="X[0] <= 0.049\nmse = 0.09\nsamples = 2\nvalue = 45.7"] ;
606 -> 608 ;
609 [label="mse = 0.0\nsamples = 1\nvalue = 45.4"] ;
608 -> 609 ;
610 [label="mse = -0.0\nsamples = 1\nvalue = 46.0"] ;
608 -> 610 ;
611 [label="mse = 0.0\nsamples = 4\nvalue = 50.0"] ;
605 -> 611 ;
612 [label="X[11] <= 383.525\nmse = 11.819\nsamples = 9\nvalue = 43.789"] ;
604 -> 612 ;
613 [label="X[12] <= 4.29\nmse = 0.722\nsamples = 2\nvalue = 49.15"] ;
612 -> 613 ;
614 [label="mse = 0.0\nsamples = 1\nvalue = 48.3"] ;
613 -> 614 ;
615 [label="mse = -0.0\nsamples = 1\nvalue = 50.0"] ;
613 -> 615 ;
616 [label="X[12] <= 3.145\nmse = 4.431\nsamples = 7\nvalue = 42.257"] ;
612 -> 616 ;
617 [label="X[7] <= 3.527\nmse = 4.362\nsamples = 3\nvalue = 40.533"] ;
616 -> 617 ;
618 [label="mse = 0.0\nsamples = 1\nvalue = 37.6"] ;
617 -> 618 ;
619 [label="X[0] <= 0.299\nmse = 0.09\nsamples = 2\nvalue = 42.0"] ;
617 -> 619 ;
620 [label="mse = 0.0\nsamples = 1\nvalue = 42.3"] ;
619 -> 620 ;
621 [label="mse = 0.0\nsamples = 1\nvalue = 41.7"] ;
619 -> 621 ;
622 [label="X[8] <= 7.5\nmse = 0.582\nsamples = 4\nvalue = 43.55"] ;
616 -> 622 ;
623 [label="X[5] <= 7.495\nmse = 0.082\nsamples = 3\nvalue = 43.133"] ;
622 -> 623 ;
624 [label="mse = 0.0\nsamples = 1\nvalue = 43.5"] ;
623 -> 624 ;
625 [label="X[4] <= 0.539\nmse = 0.022\nsamples = 2\nvalue = 42.95"] ;
623 -> 625 ;
626 [label="mse = 0.0\nsamples = 1\nvalue = 42.8"] ;
625 -> 626 ;
627 [label="mse = -0.0\nsamples = 1\nvalue = 43.1"] ;
625 -> 627 ;
628 [label="mse = -0.0\nsamples = 1\nvalue = 44.8"] ;
622 -> 628 ;
629 [label="mse = 0.0\nsamples = 5\nvalue = 50.0"] ;
603 -> 629 ;
630 [label="mse = -0.0\nsamples = 1\nvalue = 21.9"] ;
602 -> 630 ;
}
